<?xml version="1.0" encoding="UTF-8" standalone="yes"?>
<PMML xmlns="http://www.dmg.org/PMML-4_4" xmlns:data="http://jpmml.org/jpmml-model/InlineTable" version="4.4">
	<Header>
		<Application name="JPMML-SparkML command-line application" version="2.1-SNAPSHOT"/>
		<Timestamp>2023-04-16T13:21:08Z</Timestamp>
	</Header>
	<DataDictionary>
		<DataField name="cylinders" optype="categorical" dataType="integer">
			<Value value="4"/>
			<Value value="8"/>
			<Value value="6"/>
			<Value value="3"/>
			<Value value="5"/>
		</DataField>
		<DataField name="model_year" optype="categorical" dataType="integer">
			<Value value="73"/>
			<Value value="78"/>
			<Value value="76"/>
			<Value value="75"/>
			<Value value="82"/>
			<Value value="70"/>
			<Value value="79"/>
			<Value value="72"/>
			<Value value="77"/>
			<Value value="81"/>
			<Value value="71"/>
			<Value value="80"/>
			<Value value="74"/>
		</DataField>
		<DataField name="origin" optype="categorical" dataType="string">
			<Value value="1"/>
			<Value value="3"/>
			<Value value="2"/>
		</DataField>
		<DataField name="acceleration" optype="continuous" dataType="double"/>
		<DataField name="displacement" optype="continuous" dataType="double"/>
		<DataField name="horsepower" optype="continuous" dataType="integer"/>
		<DataField name="weight" optype="continuous" dataType="integer"/>
		<DataField name="mpg" optype="continuous" dataType="double"/>
	</DataDictionary>
	<MiningModel functionName="regression" algorithmName="LightGBM">
		<MiningSchema>
			<Extension name="X-FeatureImportances">
				<InlineTable>
					<Extension name="numberOfImportances" value="7"/>
					<Extension name="numberOfNonZeroImportances" value="7"/>
					<Extension name="sumOfImportances" value="1431.0"/>
					<Extension name="minImportance" value="9.0"/>
					<Extension name="maxImportance" value="432.0"/>
					<row>
						<data:name>model_year</data:name>
						<data:importance>100.0</data:importance>
					</row>
					<row>
						<data:name>horsepower</data:name>
						<data:importance>256.0</data:importance>
					</row>
					<row>
						<data:name>cylinders</data:name>
						<data:importance>9.0</data:importance>
					</row>
					<row>
						<data:name>displacement</data:name>
						<data:importance>254.0</data:importance>
					</row>
					<row>
						<data:name>acceleration</data:name>
						<data:importance>306.0</data:importance>
					</row>
					<row>
						<data:name>origin</data:name>
						<data:importance>74.0</data:importance>
					</row>
					<row>
						<data:name>weight</data:name>
						<data:importance>432.0</data:importance>
					</row>
				</InlineTable>
			</Extension>
			<MiningField name="mpg" usageType="target"/>
			<MiningField name="cylinders" importance="9.0"/>
			<MiningField name="model_year" importance="100.0"/>
			<MiningField name="origin" importance="74.0"/>
			<MiningField name="acceleration" importance="306.0"/>
			<MiningField name="displacement" importance="254.0"/>
			<MiningField name="horsepower" importance="256.0"/>
			<MiningField name="weight" importance="432.0"/>
		</MiningSchema>
		<Output>
			<OutputField name="prediction" optype="continuous" dataType="double"/>
		</Output>
		<Segmentation multipleModelMethod="sum" missingPredictionTreatment="returnMissing">
			<Segment id="1">
				<True/>
				<TreeModel functionName="regression" noTrueChildStrategy="returnLastPrediction">
					<MiningSchema>
						<MiningField name="acceleration"/>
						<MiningField name="displacement"/>
						<MiningField name="horsepower"/>
						<MiningField name="weight"/>
					</MiningSchema>
					<Node score="24.41132649933031">
						<True/>
						<Node score="23.17799318933568">
							<SimplePredicate field="displacement" operator="greaterThan" value="198.50000000000003"/>
							<Node score="22.712126533333134">
								<SimplePredicate field="horsepower" operator="greaterThan" value="127.00000000000001"/>
								<Node score="22.386326547447517">
									<SimplePredicate field="weight" operator="greaterThan" value="4369.500000000001"/>
								</Node>
								<Node score="22.60132653859197">
									<SimplePredicate field="horsepower" operator="greaterThan" value="146.50000000000003"/>
									<Node score="22.55432653981812">
										<SimplePredicate field="horsepower" operator="greaterThan" value="154.00000000000003"/>
									</Node>
								</Node>
							</Node>
							<Node score="22.91612652272351">
								<SimplePredicate field="weight" operator="greaterThan" value="3427.5000000000005"/>
							</Node>
							<Node score="23.03572651940949">
								<SimplePredicate field="horsepower" operator="greaterThan" value="96.50000000000001"/>
							</Node>
						</Node>
						<Node score="24.214526531044317">
							<SimplePredicate field="horsepower" operator="greaterThan" value="70.50000000000001"/>
							<Node score="23.762407601223224">
								<SimplePredicate field="horsepower" operator="greaterThan" value="84.50000000000001"/>
								<Node score="23.30477479015707">
									<SimplePredicate field="weight" operator="greaterThan" value="2797.5000000000005"/>
								</Node>
								<Node score="23.55197169570653">
									<SimplePredicate field="horsepower" operator="greaterThan" value="92.50000000000001"/>
								</Node>
							</Node>
							<Node score="23.825389039140116">
								<SimplePredicate field="acceleration" operator="greaterThan" value="15.450000000000001"/>
							</Node>
						</Node>
						<Node score="24.272095761229423">
							<SimplePredicate field="displacement" operator="greaterThan" value="93.50000000000001"/>
						</Node>
						<Node score="24.743500406380342">
							<SimplePredicate field="weight" operator="greaterThan" value="1966.5000000000002"/>
						</Node>
					</Node>
				</TreeModel>
			</Segment>
			<Segment id="2">
				<True/>
				<TreeModel functionName="regression" noTrueChildStrategy="returnLastPrediction">
					<MiningSchema>
						<MiningField name="acceleration"/>
						<MiningField name="displacement"/>
						<MiningField name="horsepower"/>
						<MiningField name="weight"/>
					</MiningSchema>
					<Node score="0.850192391872406">
						<True/>
						<Node score="-0.24197710014524915">
							<SimplePredicate field="displacement" operator="greaterThan" value="198.50000000000003"/>
							<Node score="-0.6731464065611363">
								<SimplePredicate field="horsepower" operator="greaterThan" value="127.00000000000001"/>
								<Node score="-0.9536326726277671">
									<SimplePredicate field="weight" operator="greaterThan" value="4369.500000000001"/>
								</Node>
								<Node score="-0.7935609130298391">
									<SimplePredicate field="weight" operator="greaterThan" value="3958.5000000000005"/>
								</Node>
							</Node>
							<Node score="-0.3599100403163744">
								<SimplePredicate field="weight" operator="greaterThan" value="3145.0000000000005"/>
								<Node score="-0.47607290535061453">
									<SimplePredicate field="displacement" operator="greaterThan" value="241.00000000000003"/>
								</Node>
							</Node>
						</Node>
						<Node score="0.6917473545074464">
							<SimplePredicate field="horsepower" operator="greaterThan" value="70.50000000000001"/>
							<Node score="0.2848403168691171">
								<SimplePredicate field="horsepower" operator="greaterThan" value="84.50000000000001"/>
								<Node score="-0.12702920878755636">
									<SimplePredicate field="weight" operator="greaterThan" value="2797.5000000000005"/>
								</Node>
								<Node score="0.09544800161834686">
									<SimplePredicate field="horsepower" operator="greaterThan" value="92.50000000000001"/>
								</Node>
							</Node>
							<Node score="0.3415236140601337">
								<SimplePredicate field="acceleration" operator="greaterThan" value="15.450000000000001"/>
							</Node>
						</Node>
						<Node score="0.7435596554898298">
							<SimplePredicate field="displacement" operator="greaterThan" value="93.50000000000001"/>
						</Node>
						<Node score="1.171707889934381">
							<SimplePredicate field="displacement" operator="greaterThan" value="85.50000000000001"/>
						</Node>
					</Node>
				</TreeModel>
			</Segment>
			<Segment id="3">
				<True/>
				<TreeModel functionName="regression" noTrueChildStrategy="returnLastPrediction">
					<MiningSchema>
						<MiningField name="acceleration"/>
						<MiningField name="displacement"/>
						<MiningField name="horsepower"/>
						<MiningField name="weight"/>
					</MiningSchema>
					<Node score="0.7677723090757024">
						<True/>
						<Node score="-0.2091064589364188">
							<SimplePredicate field="displacement" operator="greaterThan" value="198.50000000000003"/>
							<Node score="-0.5873181138038636">
								<SimplePredicate field="horsepower" operator="greaterThan" value="127.00000000000001"/>
								<Node score="-0.8582693640391033">
									<SimplePredicate field="weight" operator="greaterThan" value="4369.500000000001"/>
								</Node>
								<Node score="-0.6870839822859991">
									<SimplePredicate field="horsepower" operator="greaterThan" value="146.50000000000003"/>
									<Node score="-0.7278931450843812">
										<SimplePredicate field="horsepower" operator="greaterThan" value="154.00000000000003"/>
									</Node>
								</Node>
							</Node>
							<Node score="-0.43385186457633973">
								<SimplePredicate field="weight" operator="greaterThan" value="3427.5000000000005"/>
							</Node>
							<Node score="-0.3341817519664765">
								<SimplePredicate field="horsepower" operator="greaterThan" value="96.50000000000001"/>
							</Node>
						</Node>
						<Node score="0.5858586409129203">
							<SimplePredicate field="horsepower" operator="greaterThan" value="70.50000000000001"/>
							<Node score="0.25635628780803166">
								<SimplePredicate field="horsepower" operator="greaterThan" value="84.50000000000001"/>
								<Node score="-0.11432629700364738">
									<SimplePredicate field="weight" operator="greaterThan" value="2797.5000000000005"/>
								</Node>
								<Node score="0.08590319769517069">
									<SimplePredicate field="horsepower" operator="greaterThan" value="92.50000000000001"/>
								</Node>
							</Node>
							<Node score="0.26610875415802">
								<SimplePredicate field="acceleration" operator="greaterThan" value="16.3"/>
							</Node>
						</Node>
						<Node score="0.6692036798367134">
							<SimplePredicate field="displacement" operator="greaterThan" value="93.50000000000001"/>
						</Node>
						<Node score="1.0646319949108622">
							<SimplePredicate field="weight" operator="greaterThan" value="1966.5000000000002"/>
						</Node>
					</Node>
				</TreeModel>
			</Segment>
			<Segment id="4">
				<True/>
				<TreeModel functionName="regression" noTrueChildStrategy="returnLastPrediction">
					<MiningSchema>
						<MiningField name="displacement"/>
						<MiningField name="horsepower"/>
						<MiningField name="weight"/>
					</MiningSchema>
					<Node score="0.6742597373379838">
						<True/>
						<Node score="-0.19091277349562874">
							<SimplePredicate field="displacement" operator="greaterThan" value="198.50000000000003"/>
							<Node score="-0.546436564789878">
								<SimplePredicate field="horsepower" operator="greaterThan" value="127.00000000000001"/>
								<Node score="-0.7724424743652345">
									<SimplePredicate field="weight" operator="greaterThan" value="4369.500000000001"/>
								</Node>
								<Node score="-0.65436350107193">
									<SimplePredicate field="displacement" operator="greaterThan" value="329.00000000000006"/>
								</Node>
							</Node>
							<Node score="-0.289430197717055">
								<SimplePredicate field="weight" operator="greaterThan" value="3145.0000000000005"/>
								<Node score="-0.3913631700255253">
									<SimplePredicate field="displacement" operator="greaterThan" value="241.00000000000003"/>
								</Node>
							</Node>
						</Node>
						<Node score="0.5360459014292686">
							<SimplePredicate field="horsepower" operator="greaterThan" value="70.50000000000001"/>
							<Node score="0.08028067538031826">
								<SimplePredicate field="horsepower" operator="greaterThan" value="84.50000000000001"/>
								<Node score="-0.086706107674223">
									<SimplePredicate field="weight" operator="greaterThan" value="2742.5000000000005"/>
								</Node>
								<Node score="0.23359921125544086">
									<SimplePredicate field="weight" operator="greaterThan" value="2414.0000000000005"/>
								</Node>
							</Node>
							<Node score="0.24010587999453914">
								<SimplePredicate field="displacement" operator="greaterThan" value="113.50000000000001"/>
							</Node>
						</Node>
						<Node score="0.6022833111194464">
							<SimplePredicate field="displacement" operator="greaterThan" value="93.50000000000001"/>
						</Node>
						<Node score="0.9616799573103587">
							<SimplePredicate field="displacement" operator="greaterThan" value="85.50000000000001"/>
						</Node>
					</Node>
				</TreeModel>
			</Segment>
			<Segment id="5">
				<True/>
				<TreeModel functionName="regression" noTrueChildStrategy="returnLastPrediction">
					<MiningSchema>
						<MiningField name="model_year"/>
						<MiningField name="displacement"/>
						<MiningField name="horsepower"/>
						<MiningField name="weight"/>
					</MiningSchema>
					<Node score="0.36843613303940875">
						<True/>
						<Node score="-0.0427088164998328">
							<SimplePredicate field="displacement" operator="greaterThan" value="153.00000000000003"/>
							<Node score="-0.4863975734937759">
								<SimplePredicate field="weight" operator="greaterThan" value="3727.5000000000005"/>
								<Node score="-0.6951981925964357">
									<SimplePredicate field="weight" operator="greaterThan" value="4369.500000000001"/>
								</Node>
								<Node score="-0.5855565985043844">
									<SimplePredicate field="horsepower" operator="greaterThan" value="141.00000000000003"/>
								</Node>
							</Node>
							<Node score="-0.3347330137342215">
								<SimplePredicate field="weight" operator="greaterThan" value="3077.5000000000005"/>
								<Node score="-0.4636986897750334">
									<SimplePredicate field="horsepower" operator="greaterThan" value="115.50000000000001"/>
								</Node>
								<Node score="-0.2286133685708046">
									<SimplePredicate field="weight" operator="greaterThan" value="3344.5000000000005"/>
								</Node>
							</Node>
						</Node>
						<Node score="1.0350140827042718">
							<SimpleSetPredicate field="model_year" booleanOperator="isIn">
								<Array type="int">78 82 79 81 80</Array>
							</SimpleSetPredicate>
							<Node score="0.47729390085391377">
								<SimplePredicate field="weight" operator="greaterThan" value="2373.5000000000005"/>
								<Node score="0.26553586542606356">
									<SimplePredicate field="weight" operator="greaterThan" value="2670.5000000000005"/>
								</Node>
							</Node>
							<Node score="0.7707608296953399">
								<SimplePredicate field="horsepower" operator="greaterThan" value="67.50000000000001"/>
							</Node>
						</Node>
						<Node score="0.08343449448900564">
							<SimplePredicate field="weight" operator="greaterThan" value="2080.0000000000005"/>
							<Node score="-0.09664961691945792">
								<SimplePredicate field="weight" operator="greaterThan" value="2305.0000000000005"/>
								<Node score="-0.15395000422373417">
									<SimplePredicate field="weight" operator="greaterThan" value="2578.5000000000005"/>
								</Node>
							</Node>
						</Node>
					</Node>
				</TreeModel>
			</Segment>
			<Segment id="6">
				<True/>
				<TreeModel functionName="regression" noTrueChildStrategy="returnLastPrediction">
					<MiningSchema>
						<MiningField name="model_year"/>
						<MiningField name="acceleration"/>
						<MiningField name="displacement"/>
						<MiningField name="horsepower"/>
						<MiningField name="weight"/>
					</MiningSchema>
					<Node score="0.39075117685965133">
						<True/>
						<Node score="-0.1425243329434168">
							<SimplePredicate field="displacement" operator="greaterThan" value="198.50000000000003"/>
							<Node score="-0.4319879486691207">
								<SimplePredicate field="horsepower" operator="greaterThan" value="127.00000000000001"/>
								<Node score="-0.5300707753966837">
									<SimplePredicate field="weight" operator="greaterThan" value="3958.5000000000005"/>
									<Node score="-0.6256783866882325">
										<SimplePredicate field="weight" operator="greaterThan" value="4369.500000000001"/>
									</Node>
								</Node>
							</Node>
							<Node score="-0.3233569030761719">
								<SimplePredicate field="weight" operator="greaterThan" value="3427.5000000000005"/>
							</Node>
							<Node score="-0.2515699778199196">
								<SimplePredicate field="horsepower" operator="greaterThan" value="96.50000000000001"/>
							</Node>
						</Node>
						<Node score="0.9124223828315735">
							<SimpleSetPredicate field="model_year" booleanOperator="isIn">
								<Array type="int">82 79 77 81 80</Array>
							</SimpleSetPredicate>
							<Node score="0.2625078197568655">
								<SimplePredicate field="weight" operator="greaterThan" value="2578.5000000000005"/>
								<Node score="0.31232246398925784">
									<SimplePredicate field="acceleration" operator="greaterThan" value="16.3"/>
								</Node>
							</Node>
							<Node score="0.7704486270745595">
								<SimplePredicate field="horsepower" operator="greaterThan" value="65.50000000000001"/>
								<Node score="0.5588561927278837">
									<SimplePredicate field="acceleration" operator="greaterThan" value="15.450000000000001"/>
								</Node>
							</Node>
						</Node>
						<Node score="0.07873005845717022">
							<SimplePredicate field="weight" operator="greaterThan" value="2080.0000000000005"/>
							<Node score="-0.27994123216718436">
								<SimplePredicate field="weight" operator="greaterThan" value="2742.5000000000005"/>
							</Node>
							<Node score="-0.08109079825155663">
								<SimplePredicate field="weight" operator="greaterThan" value="2305.0000000000005"/>
							</Node>
						</Node>
					</Node>
				</TreeModel>
			</Segment>
			<Segment id="7">
				<True/>
				<TreeModel functionName="regression" noTrueChildStrategy="returnLastPrediction">
					<MiningSchema>
						<MiningField name="model_year"/>
						<MiningField name="acceleration"/>
						<MiningField name="displacement"/>
						<MiningField name="horsepower"/>
						<MiningField name="weight"/>
					</MiningSchema>
					<Node score="0.2852916808606222">
						<True/>
						<Node score="-0.2018328853789717">
							<SimplePredicate field="displacement" operator="greaterThan" value="198.50000000000003"/>
							<Node score="-0.41807051187469846">
								<SimplePredicate field="horsepower" operator="greaterThan" value="141.00000000000003"/>
								<Node score="-0.5766929268836976">
									<SimplePredicate field="horsepower" operator="greaterThan" value="172.50000000000003"/>
								</Node>
								<Node score="-0.4941463552672287">
									<SimplePredicate field="displacement" operator="greaterThan" value="329.00000000000006"/>
								</Node>
							</Node>
							<Node score="-0.3902982850869497">
								<SimplePredicate field="weight" operator="greaterThan" value="3727.5000000000005"/>
							</Node>
							<Node score="-0.15220598368733018">
								<SimplePredicate field="acceleration" operator="greaterThan" value="16.650000000000002"/>
							</Node>
							<Node score="-0.2800628312609412">
								<SimplePredicate field="acceleration" operator="greaterThan" value="15.450000000000001"/>
							</Node>
						</Node>
						<Node score="0.8537879326513835">
							<SimpleSetPredicate field="model_year" booleanOperator="isIn">
								<Array type="int">78 82 79 81 80</Array>
							</SimpleSetPredicate>
							<Node score="0.36171653626426575">
								<SimplePredicate field="weight" operator="greaterThan" value="2373.5000000000005"/>
								<Node score="0.1474122610092163">
									<SimplePredicate field="weight" operator="greaterThan" value="2722.5000000000005"/>
								</Node>
							</Node>
							<Node score="0.6353660928791967">
								<SimplePredicate field="horsepower" operator="greaterThan" value="67.50000000000001"/>
							</Node>
						</Node>
						<Node score="0.014257223311473022">
							<SimplePredicate field="weight" operator="greaterThan" value="2221.5000000000005"/>
							<Node score="-0.19119106583297252">
								<SimplePredicate field="weight" operator="greaterThan" value="2686.0000000000005"/>
							</Node>
							<Node score="-0.12998041964712598">
								<SimplePredicate field="acceleration" operator="greaterThan" value="15.850000000000003"/>
							</Node>
						</Node>
						<Node score="0.0960197252035141">
							<SimplePredicate field="weight" operator="greaterThan" value="2080.0000000000005"/>
						</Node>
					</Node>
				</TreeModel>
			</Segment>
			<Segment id="8">
				<True/>
				<TreeModel functionName="regression" noTrueChildStrategy="returnLastPrediction">
					<MiningSchema>
						<MiningField name="model_year"/>
						<MiningField name="acceleration"/>
						<MiningField name="displacement"/>
						<MiningField name="horsepower"/>
						<MiningField name="weight"/>
					</MiningSchema>
					<Node score="0.2567625136211001">
						<True/>
						<Node score="-0.011165199981581782">
							<SimplePredicate field="displacement" operator="greaterThan" value="153.00000000000003"/>
							<Node score="-0.3556386431058248">
								<SimplePredicate field="weight" operator="greaterThan" value="3727.5000000000005"/>
								<Node score="-0.5101467629273733">
									<SimplePredicate field="weight" operator="greaterThan" value="4369.500000000001"/>
								</Node>
								<Node score="-0.428921929664082">
									<SimplePredicate field="weight" operator="greaterThan" value="3958.5000000000005"/>
								</Node>
							</Node>
							<Node score="-0.15974463729986124">
								<SimplePredicate field="weight" operator="greaterThan" value="3030.0000000000005"/>
								<Node score="-0.3455435960130258">
									<SimplePredicate field="horsepower" operator="greaterThan" value="115.50000000000001"/>
								</Node>
								<Node score="-0.2585084474086762">
									<SimplePredicate field="displacement" operator="greaterThan" value="241.00000000000003"/>
								</Node>
							</Node>
						</Node>
						<Node score="0.5925306702653568">
							<SimpleSetPredicate field="model_year" booleanOperator="isIn">
								<Array type="int">78 82 79 81 80</Array>
							</SimpleSetPredicate>
							<Node score="0.35023059793140576">
								<SimplePredicate field="weight" operator="greaterThan" value="2373.5000000000005"/>
								<Node score="0.20032095895148816">
									<SimplePredicate field="weight" operator="greaterThan" value="2670.5000000000005"/>
								</Node>
							</Node>
							<Node score="0.7984479597636631">
								<SimplePredicate field="acceleration" operator="greaterThan" value="16.750000000000004"/>
							</Node>
						</Node>
						<Node score="0.057308672848157584">
							<SimplePredicate field="weight" operator="greaterThan" value="2080.0000000000005"/>
							<Node score="-0.07236823208630086">
								<SimplePredicate field="weight" operator="greaterThan" value="2305.0000000000005"/>
								<Node score="-0.11798414256423713">
									<SimplePredicate field="weight" operator="greaterThan" value="2578.5000000000005"/>
								</Node>
							</Node>
						</Node>
					</Node>
				</TreeModel>
			</Segment>
			<Segment id="9">
				<True/>
				<TreeModel functionName="regression" noTrueChildStrategy="returnLastPrediction">
					<MiningSchema>
						<MiningField name="model_year"/>
						<MiningField name="acceleration"/>
						<MiningField name="displacement"/>
						<MiningField name="horsepower"/>
						<MiningField name="weight"/>
					</MiningSchema>
					<Node score="0.2310862605941707">
						<True/>
						<Node score="-0.010048678709614662">
							<SimplePredicate field="displacement" operator="greaterThan" value="153.00000000000003"/>
							<Node score="-0.3193656750378155">
								<SimplePredicate field="weight" operator="greaterThan" value="3727.5000000000005"/>
								<Node score="-0.4591320788860321">
									<SimplePredicate field="weight" operator="greaterThan" value="4369.500000000001"/>
								</Node>
								<Node score="-0.3864433744301399">
									<SimplePredicate field="horsepower" operator="greaterThan" value="141.00000000000003"/>
								</Node>
							</Node>
							<Node score="-0.14377017255340305">
								<SimplePredicate field="weight" operator="greaterThan" value="3030.0000000000005"/>
								<Node score="-0.31098924409598117">
									<SimplePredicate field="horsepower" operator="greaterThan" value="115.50000000000001"/>
								</Node>
								<Node score="-0.23265760987997056">
									<SimplePredicate field="displacement" operator="greaterThan" value="241.00000000000003"/>
								</Node>
							</Node>
						</Node>
						<Node score="0.6988602086901665">
							<SimpleSetPredicate field="model_year" booleanOperator="isIn">
								<Array type="int">78 82 79 81 80</Array>
							</SimpleSetPredicate>
							<Node score="0.31520754267340123">
								<SimplePredicate field="weight" operator="greaterThan" value="2373.5000000000005"/>
								<Node score="0.18028886519372464">
									<SimplePredicate field="weight" operator="greaterThan" value="2670.5000000000005"/>
								</Node>
							</Node>
							<Node score="0.5076059957002771">
								<SimplePredicate field="horsepower" operator="greaterThan" value="67.50000000000001"/>
							</Node>
						</Node>
						<Node score="-0.01664529739568631">
							<SimplePredicate field="weight" operator="greaterThan" value="2221.5000000000005"/>
							<Node score="-0.10941993145644664">
								<SimplePredicate field="acceleration" operator="greaterThan" value="15.850000000000003"/>
							</Node>
						</Node>
						<Node score="0.08068688652478159">
							<SimplePredicate field="weight" operator="greaterThan" value="2080.0000000000005"/>
						</Node>
					</Node>
				</TreeModel>
			</Segment>
			<Segment id="10">
				<True/>
				<TreeModel functionName="regression" noTrueChildStrategy="returnLastPrediction">
					<MiningSchema>
						<MiningField name="cylinders"/>
						<MiningField name="origin"/>
						<MiningField name="acceleration"/>
						<MiningField name="displacement"/>
						<MiningField name="weight"/>
					</MiningSchema>
					<Node score="-0.12895178575264782">
						<True/>
						<Node score="0.22724733240902426">
							<SimplePredicate field="cylinders" operator="equal" value="4"/>
							<Node score="0.16725541973486543">
								<SimplePredicate field="weight" operator="greaterThan" value="2212.5000000000005"/>
								<Node score="-0.015237096945444742">
									<SimplePredicate field="displacement" operator="greaterThan" value="119.50000000000001"/>
									<Node score="0.12584884873515853">
										<SimplePredicate field="displacement" operator="greaterThan" value="134.50000000000003"/>
									</Node>
								</Node>
								<Node score="0.22137063533067702">
									<SimplePredicate field="weight" operator="greaterThan" value="2342.5000000000005"/>
								</Node>
							</Node>
							<Node score="0.504308994486928">
								<SimplePredicate field="origin" operator="equal" value="3"/>
								<Node score="0.4059325993061066">
									<SimplePredicate field="displacement" operator="greaterThan" value="90.50000000000001"/>
								</Node>
							</Node>
							<Node score="0.38182748377323156">
								<SimplePredicate field="weight" operator="greaterThan" value="2067.5000000000005"/>
							</Node>
						</Node>
						<Node score="-0.3791934841871262">
							<SimplePredicate field="weight" operator="greaterThan" value="3727.5000000000005"/>
							<Node score="-0.4164121159485409">
								<SimplePredicate field="weight" operator="greaterThan" value="4381.000000000001"/>
							</Node>
							<Node score="-0.3002547161319317">
								<SimplePredicate field="displacement" operator="greaterThan" value="312.50000000000006"/>
							</Node>
						</Node>
						<Node score="-0.043447688817977906">
							<SimplePredicate field="acceleration" operator="greaterThan" value="16.650000000000002"/>
						</Node>
						<Node score="-0.24308228328039774">
							<SimplePredicate field="displacement" operator="greaterThan" value="231.50000000000003"/>
						</Node>
					</Node>
				</TreeModel>
			</Segment>
			<Segment id="11">
				<True/>
				<TreeModel functionName="regression" noTrueChildStrategy="returnLastPrediction">
					<MiningSchema>
						<MiningField name="model_year"/>
						<MiningField name="acceleration"/>
						<MiningField name="displacement"/>
						<MiningField name="horsepower"/>
						<MiningField name="weight"/>
					</MiningSchema>
					<Node score="0.24130455711058207">
						<True/>
						<Node score="0.5844874769449234">
							<SimpleSetPredicate field="model_year" booleanOperator="isIn">
								<Array type="int">82 79 81 80</Array>
							</SimpleSetPredicate>
							<Node score="0.24308478236762865">
								<SimplePredicate field="displacement" operator="greaterThan" value="134.50000000000003"/>
								<Node score="0.02549910262227059">
									<SimplePredicate field="weight" operator="greaterThan" value="3210.5000000000005"/>
								</Node>
							</Node>
							<Node score="0.44349613649504527">
								<SimplePredicate field="horsepower" operator="greaterThan" value="67.50000000000001"/>
							</Node>
						</Node>
						<Node score="-0.030664389394223692">
							<SimplePredicate field="weight" operator="greaterThan" value="2305.0000000000005"/>
							<Node score="-0.24304512113332752">
								<SimplePredicate field="displacement" operator="greaterThan" value="241.00000000000003"/>
								<Node score="-0.2768038657307625">
									<SimplePredicate field="weight" operator="greaterThan" value="3607.0000000000005"/>
									<Node score="-0.43992162708725246">
										<SimplePredicate field="horsepower" operator="greaterThan" value="151.00000000000003"/>
										<Node score="-0.3188839060068131">
											<SimplePredicate field="displacement" operator="greaterThan" value="371.50000000000006"/>
										</Node>
									</Node>
									<Node score="-0.3552864276844523">
										<SimplePredicate field="acceleration" operator="greaterThan" value="13.750000000000002"/>
									</Node>
								</Node>
							</Node>
							<Node score="-0.16796670489013196">
								<SimplePredicate field="horsepower" operator="greaterThan" value="96.50000000000001"/>
								<Node score="-0.23345444273948668">
									<SimplePredicate field="displacement" operator="greaterThan" value="159.50000000000003"/>
								</Node>
							</Node>
							<Node score="-0.11531961758931478">
								<SimplePredicate field="acceleration" operator="greaterThan" value="16.650000000000002"/>
							</Node>
						</Node>
						<Node score="0.032613458828284196">
							<SimplePredicate field="weight" operator="greaterThan" value="2080.0000000000005"/>
						</Node>
					</Node>
				</TreeModel>
			</Segment>
			<Segment id="12">
				<True/>
				<TreeModel functionName="regression" noTrueChildStrategy="returnLastPrediction">
					<MiningSchema>
						<MiningField name="model_year"/>
						<MiningField name="origin"/>
						<MiningField name="acceleration"/>
						<MiningField name="displacement"/>
						<MiningField name="horsepower"/>
						<MiningField name="weight"/>
					</MiningSchema>
					<Node score="0.21717410266399384">
						<True/>
						<Node score="0.3618458152325316">
							<SimpleSetPredicate field="model_year" booleanOperator="isIn">
								<Array type="int">82 79 81 80</Array>
							</SimpleSetPredicate>
							<Node score="0.21877630435381878">
								<SimplePredicate field="displacement" operator="greaterThan" value="134.50000000000003"/>
								<Node score="0.02294919088482857">
									<SimplePredicate field="weight" operator="greaterThan" value="3210.5000000000005"/>
								</Node>
							</Node>
							<Node score="0.504782755037722">
								<SimplePredicate field="weight" operator="greaterThan" value="2080.0000000000005"/>
							</Node>
						</Node>
						<Node score="-0.14938686793162065">
							<SimplePredicate field="weight" operator="greaterThan" value="2781.5000000000005"/>
							<Node score="-0.25732857088247935">
								<SimplePredicate field="weight" operator="greaterThan" value="3607.0000000000005"/>
								<Node score="-0.29296431203683215">
									<SimplePredicate field="horsepower" operator="greaterThan" value="146.50000000000003"/>
									<Node score="-0.3653081895843629">
										<SimplePredicate field="acceleration" operator="greaterThan" value="12.350000000000001"/>
									</Node>
								</Node>
							</Node>
							<Node score="-0.212874485454277">
								<SimplePredicate field="displacement" operator="greaterThan" value="231.50000000000003"/>
							</Node>
						</Node>
						<Node score="0.029352114330499602">
							<SimplePredicate field="weight" operator="greaterThan" value="2080.0000000000005"/>
							<Node score="-0.042047901112924925">
								<SimplePredicate field="weight" operator="greaterThan" value="2305.0000000000005"/>
								<Node score="-0.11470859296619894">
									<SimplePredicate field="origin" operator="equal" value="1"/>
								</Node>
							</Node>
						</Node>
					</Node>
				</TreeModel>
			</Segment>
			<Segment id="13">
				<True/>
				<TreeModel functionName="regression" noTrueChildStrategy="returnLastPrediction">
					<MiningSchema>
						<MiningField name="cylinders"/>
						<MiningField name="model_year"/>
						<MiningField name="origin"/>
						<MiningField name="acceleration"/>
						<MiningField name="displacement"/>
						<MiningField name="horsepower"/>
						<MiningField name="weight"/>
					</MiningSchema>
					<Node score="-0.21766574417843537">
						<True/>
						<Node score="0.32566123469309377">
							<SimpleSetPredicate field="model_year" booleanOperator="isIn">
								<Array type="int">82 79 81 80</Array>
							</SimpleSetPredicate>
							<Node score="0.20926849186759103">
								<SimplePredicate field="weight" operator="greaterThan" value="2578.5000000000005"/>
								<Node score="0.03197070463843968">
									<SimplePredicate field="weight" operator="greaterThan" value="3030.0000000000005"/>
								</Node>
							</Node>
							<Node score="0.4718730515489976">
								<SimplePredicate field="weight" operator="greaterThan" value="2080.0000000000005"/>
							</Node>
						</Node>
						<Node score="0.10215581346016665">
							<SimplePredicate field="cylinders" operator="equal" value="4"/>
							<Node score="0.05232579642534257">
								<SimplePredicate field="weight" operator="greaterThan" value="2156.5000000000005"/>
								<Node score="-0.04145753802731633">
									<SimplePredicate field="displacement" operator="greaterThan" value="113.50000000000001"/>
									<Node score="-0.1094268521801992">
										<SimplePredicate field="acceleration" operator="greaterThan" value="15.550000000000002"/>
									</Node>
								</Node>
							</Node>
							<Node score="0.267633123472333">
								<SimplePredicate field="origin" operator="equal" value="3"/>
							</Node>
						</Node>
						<Node score="-0.24233548791280818">
							<SimplePredicate field="weight" operator="greaterThan" value="3648.0000000000005"/>
							<Node score="-0.3341871789523534">
								<SimplePredicate field="horsepower" operator="greaterThan" value="177.50000000000003"/>
							</Node>
							<Node score="-0.2836817114132232">
								<SimplePredicate field="displacement" operator="greaterThan" value="329.00000000000006"/>
							</Node>
						</Node>
						<Node score="-0.0959673196343439">
							<SimplePredicate field="weight" operator="greaterThan" value="3191.5000000000005"/>
							<Node score="-0.21739329103203048">
								<SimplePredicate field="acceleration" operator="greaterThan" value="15.750000000000002"/>
							</Node>
						</Node>
					</Node>
				</TreeModel>
			</Segment>
			<Segment id="14">
				<True/>
				<TreeModel functionName="regression" noTrueChildStrategy="returnLastPrediction">
					<MiningSchema>
						<MiningField name="cylinders"/>
						<MiningField name="model_year"/>
						<MiningField name="origin"/>
						<MiningField name="acceleration"/>
						<MiningField name="displacement"/>
						<MiningField name="horsepower"/>
						<MiningField name="weight"/>
					</MiningSchema>
					<Node score="-0.14885077451666195">
						<True/>
						<Node score="0.3047219115495682">
							<SimpleSetPredicate field="model_year" booleanOperator="isIn">
								<Array type="int">82 79 81 80</Array>
							</SimpleSetPredicate>
							<Node score="0.2989420476555824">
								<SimplePredicate field="origin" operator="equal" value="1"/>
								<Node score="-0.013122802263214476">
									<SimplePredicate field="weight" operator="greaterThan" value="2602.5000000000005"/>
									<Node score="0.10659645780920984">
										<SimplePredicate field="acceleration" operator="greaterThan" value="16.450000000000003"/>
									</Node>
								</Node>
							</Node>
							<Node score="0.4449763018976558">
								<SimplePredicate field="weight" operator="greaterThan" value="2109.0000000000005"/>
							</Node>
						</Node>
						<Node score="0.0919402311770962">
							<SimplePredicate field="cylinders" operator="equal" value="4"/>
							<Node score="0.047093218207359316">
								<SimplePredicate field="weight" operator="greaterThan" value="2156.5000000000005"/>
								<Node score="-0.10176528893411159">
									<SimplePredicate field="displacement" operator="greaterThan" value="113.50000000000001"/>
									<Node score="-0.03949340858425086">
										<SimplePredicate field="weight" operator="greaterThan" value="2520.0000000000005"/>
									</Node>
								</Node>
							</Node>
							<Node score="0.24086980406194924">
								<SimplePredicate field="origin" operator="equal" value="3"/>
							</Node>
						</Node>
						<Node score="-0.21810193792517696">
							<SimplePredicate field="weight" operator="greaterThan" value="3648.0000000000005"/>
							<Node score="-0.30076845231510346">
								<SimplePredicate field="horsepower" operator="greaterThan" value="177.50000000000003"/>
							</Node>
							<Node score="-0.25531353631923936">
								<SimplePredicate field="displacement" operator="greaterThan" value="329.00000000000006"/>
							</Node>
						</Node>
						<Node score="-0.13032119624830527">
							<SimplePredicate field="weight" operator="greaterThan" value="3344.5000000000005"/>
						</Node>
						<Node score="-0.2274501767495404">
							<SimplePredicate field="displacement" operator="greaterThan" value="231.50000000000003"/>
						</Node>
					</Node>
				</TreeModel>
			</Segment>
			<Segment id="15">
				<True/>
				<TreeModel functionName="regression" noTrueChildStrategy="returnLastPrediction">
					<MiningSchema>
						<MiningField name="cylinders"/>
						<MiningField name="model_year"/>
						<MiningField name="origin"/>
						<MiningField name="acceleration"/>
						<MiningField name="displacement"/>
						<MiningField name="horsepower"/>
						<MiningField name="weight"/>
					</MiningSchema>
					<Node score="-0.13396569766725105">
						<True/>
						<Node score="0.4303718429651451">
							<SimpleSetPredicate field="model_year" booleanOperator="isIn">
								<Array type="int">82 79 81 80</Array>
							</SimpleSetPredicate>
							<Node score="0.2690478413552046">
								<SimplePredicate field="origin" operator="equal" value="1"/>
								<Node score="-0.01181052266841843">
									<SimplePredicate field="weight" operator="greaterThan" value="2602.5000000000005"/>
									<Node score="0.0959368146210909">
										<SimplePredicate field="acceleration" operator="greaterThan" value="16.450000000000003"/>
									</Node>
								</Node>
							</Node>
							<Node score="0.297826121795562">
								<SimplePredicate field="horsepower" operator="greaterThan" value="67.50000000000001"/>
							</Node>
						</Node>
						<Node score="0.08274621123877857">
							<SimplePredicate field="cylinders" operator="equal" value="4"/>
							<Node score="0.057938071468780786">
								<SimplePredicate field="weight" operator="greaterThan" value="2156.5000000000005"/>
								<Node score="-0.09787716032429175">
									<SimplePredicate field="acceleration" operator="greaterThan" value="16.950000000000003"/>
								</Node>
								<Node score="-0.0611615126952529">
									<SimplePredicate field="weight" operator="greaterThan" value="2503.0000000000005"/>
								</Node>
							</Node>
							<Node score="0.21678283087909223">
								<SimplePredicate field="origin" operator="equal" value="3"/>
							</Node>
						</Node>
						<Node score="-0.2060323492544038">
							<SimplePredicate field="horsepower" operator="greaterThan" value="146.50000000000003"/>
							<Node score="-0.26805481906048956">
								<SimplePredicate field="acceleration" operator="greaterThan" value="12.350000000000001"/>
							</Node>
						</Node>
						<Node score="-0.21158941252665087">
							<SimplePredicate field="weight" operator="greaterThan" value="3758.0000000000005"/>
						</Node>
						<Node score="-0.09609758275059554">
							<SimplePredicate field="weight" operator="greaterThan" value="3344.5000000000005"/>
						</Node>
						<Node score="-0.19934678960760888">
							<SimplePredicate field="displacement" operator="greaterThan" value="231.50000000000003"/>
						</Node>
					</Node>
				</TreeModel>
			</Segment>
			<Segment id="16">
				<True/>
				<TreeModel functionName="regression" noTrueChildStrategy="returnLastPrediction">
					<MiningSchema>
						<MiningField name="model_year"/>
						<MiningField name="acceleration"/>
						<MiningField name="displacement"/>
						<MiningField name="horsepower"/>
						<MiningField name="weight"/>
					</MiningSchema>
					<Node score="0.16308437421917918">
						<True/>
						<Node score="0.2520190417766571">
							<SimpleSetPredicate field="model_year" booleanOperator="isIn">
								<Array type="int">82 77 81 80</Array>
							</SimpleSetPredicate>
							<Node score="0.13053265068502654">
								<SimplePredicate field="weight" operator="greaterThan" value="2373.5000000000005"/>
								<Node score="-0.015315043814480307">
									<SimplePredicate field="weight" operator="greaterThan" value="3030.0000000000005"/>
								</Node>
								<Node score="0.20247730726287483">
									<SimplePredicate field="weight" operator="greaterThan" value="2706.5000000000005"/>
								</Node>
							</Node>
							<Node score="0.4041871600680882">
								<SimplePredicate field="weight" operator="greaterThan" value="2067.5000000000005"/>
							</Node>
						</Node>
						<Node score="-0.08570633255716029">
							<SimplePredicate field="weight" operator="greaterThan" value="2742.5000000000005"/>
							<Node score="-0.20087097013990085">
								<SimplePredicate field="horsepower" operator="greaterThan" value="141.00000000000003"/>
								<Node score="-0.27215409960597753">
									<SimplePredicate field="horsepower" operator="greaterThan" value="177.50000000000003"/>
								</Node>
								<Node score="-0.1777739692479372">
									<SimplePredicate field="weight" operator="greaterThan" value="4177.500000000001"/>
								</Node>
							</Node>
							<Node score="-0.2053292238712311">
								<SimplePredicate field="horsepower" operator="greaterThan" value="96.50000000000001"/>
								<Node score="-0.056373290523238806">
									<SimplePredicate field="weight" operator="greaterThan" value="3191.5000000000005"/>
									<Node score="-0.16748595547676087">
										<SimplePredicate field="acceleration" operator="greaterThan" value="15.450000000000001"/>
									</Node>
								</Node>
							</Node>
						</Node>
						<Node score="-0.08575268843211234">
							<SimplePredicate field="acceleration" operator="greaterThan" value="18.900000000000002"/>
						</Node>
						<Node score="0.066866603679955">
							<SimplePredicate field="weight" operator="greaterThan" value="2121.5000000000005"/>
							<Node score="-0.050435835832641246">
								<SimplePredicate field="displacement" operator="greaterThan" value="112.50000000000001"/>
								<Node score="0.05399738088959739">
									<SimplePredicate field="weight" operator="greaterThan" value="2520.0000000000005"/>
								</Node>
							</Node>
						</Node>
					</Node>
				</TreeModel>
			</Segment>
			<Segment id="17">
				<True/>
				<TreeModel functionName="regression" noTrueChildStrategy="returnLastPrediction">
					<MiningSchema>
						<MiningField name="model_year"/>
						<MiningField name="origin"/>
						<MiningField name="acceleration"/>
						<MiningField name="displacement"/>
						<MiningField name="horsepower"/>
						<MiningField name="weight"/>
					</MiningSchema>
					<Node score="0.045186985768377784">
						<True/>
						<Node score="0.39156755974580504">
							<SimpleSetPredicate field="model_year" booleanOperator="isIn">
								<Array type="int">78 82 81 80</Array>
							</SimpleSetPredicate>
							<Node score="0.2658677256920121">
								<SimplePredicate field="horsepower" operator="greaterThan" value="67.50000000000001"/>
								<Node score="0.09284025229837584">
									<SimplePredicate field="horsepower" operator="greaterThan" value="88.50000000000001"/>
									<Node score="-0.005044666527431797">
										<SimplePredicate field="acceleration" operator="greaterThan" value="15.050000000000002"/>
									</Node>
								</Node>
								<Node score="0.11841574041545391">
									<SimplePredicate field="origin" operator="equal" value="1"/>
								</Node>
							</Node>
						</Node>
						<Node score="-0.10381425215862693">
							<SimplePredicate field="weight" operator="greaterThan" value="2781.5000000000005"/>
							<Node score="-0.1976972308896837">
								<SimplePredicate field="displacement" operator="greaterThan" value="241.00000000000003"/>
								<Node score="-0.22068804036136025">
									<SimplePredicate field="horsepower" operator="greaterThan" value="172.50000000000003"/>
								</Node>
								<Node score="-0.11499559845154483">
									<SimplePredicate field="displacement" operator="greaterThan" value="259.00000000000006"/>
									<Node score="-0.18513909615576268">
										<SimplePredicate field="weight" operator="greaterThan" value="3923.5000000000005"/>
										<Node score="-0.16916211137459392">
											<SimplePredicate field="weight" operator="greaterThan" value="4247.000000000001"/>
										</Node>
									</Node>
								</Node>
							</Node>
							<Node score="-0.06985498099100022">
								<SimplePredicate field="acceleration" operator="greaterThan" value="16.450000000000003"/>
							</Node>
						</Node>
						<Node score="-0.10637851682576267">
							<SimplePredicate field="acceleration" operator="greaterThan" value="18.250000000000004"/>
						</Node>
						<Node score="0.009855287885054565">
							<SimplePredicate field="weight" operator="greaterThan" value="2289.0000000000005"/>
						</Node>
						<Node score="0.12818959944627503">
							<SimplePredicate field="acceleration" operator="greaterThan" value="15.850000000000003"/>
						</Node>
					</Node>
				</TreeModel>
			</Segment>
			<Segment id="18">
				<True/>
				<TreeModel functionName="regression" noTrueChildStrategy="returnLastPrediction">
					<MiningSchema>
						<MiningField name="model_year"/>
						<MiningField name="origin"/>
						<MiningField name="acceleration"/>
						<MiningField name="displacement"/>
						<MiningField name="horsepower"/>
						<MiningField name="weight"/>
					</MiningSchema>
					<Node score="0.10421043331584623">
						<True/>
						<Node score="0.3709390253115159">
							<SimpleSetPredicate field="model_year" booleanOperator="isIn">
								<Array type="int">78 82 81 80</Array>
							</SimpleSetPredicate>
							<Node score="0.09314130643010139">
								<SimplePredicate field="weight" operator="greaterThan" value="2373.5000000000005"/>
								<Node score="0.14719757303380623">
									<SimplePredicate field="acceleration" operator="greaterThan" value="16.950000000000003"/>
								</Node>
								<Node score="-0.037433865144848824">
									<SimplePredicate field="acceleration" operator="greaterThan" value="15.350000000000003"/>
								</Node>
							</Node>
							<Node score="0.20495625644301377">
								<SimplePredicate field="horsepower" operator="greaterThan" value="67.50000000000001"/>
							</Node>
						</Node>
						<Node score="-0.09274429299292111">
							<SimplePredicate field="weight" operator="greaterThan" value="2781.5000000000005"/>
							<Node score="-0.18155340044093984">
								<SimplePredicate field="horsepower" operator="greaterThan" value="127.00000000000001"/>
								<Node score="-0.21746886684356825">
									<SimplePredicate field="acceleration" operator="greaterThan" value="13.950000000000001"/>
								</Node>
								<Node score="-0.1365997769129582">
									<SimplePredicate field="weight" operator="greaterThan" value="4114.500000000001"/>
								</Node>
							</Node>
							<Node score="-0.14288125137488047">
								<SimplePredicate field="acceleration" operator="greaterThan" value="17.650000000000002"/>
							</Node>
							<Node score="-0.06182227640484388">
								<SimplePredicate field="displacement" operator="greaterThan" value="228.00000000000003"/>
							</Node>
						</Node>
						<Node score="-0.09574066708711061">
							<SimplePredicate field="acceleration" operator="greaterThan" value="18.250000000000004"/>
						</Node>
						<Node score="0.008869759012491275">
							<SimplePredicate field="weight" operator="greaterThan" value="2289.0000000000005"/>
						</Node>
						<Node score="0.02512758065547262">
							<SimplePredicate field="origin" operator="equal" value="2"/>
						</Node>
					</Node>
				</TreeModel>
			</Segment>
			<Segment id="19">
				<True/>
				<TreeModel functionName="regression" noTrueChildStrategy="returnLastPrediction">
					<MiningSchema>
						<MiningField name="cylinders"/>
						<MiningField name="model_year"/>
						<MiningField name="origin"/>
						<MiningField name="acceleration"/>
						<MiningField name="horsepower"/>
						<MiningField name="weight"/>
					</MiningSchema>
					<Node score="-0.1537490525061176">
						<True/>
						<Node score="0.15207426741719246">
							<SimpleSetPredicate field="model_year" booleanOperator="isIn">
								<Array type="int">82 79 81 80</Array>
							</SimpleSetPredicate>
							<Node score="0.18953445095568897">
								<SimplePredicate field="origin" operator="equal" value="1"/>
								<Node score="-0.004500537365674973">
									<SimplePredicate field="weight" operator="greaterThan" value="2602.5000000000005"/>
									<Node score="0.07423747053369881">
										<SimplePredicate field="acceleration" operator="greaterThan" value="16.450000000000003"/>
									</Node>
								</Node>
							</Node>
							<Node score="0.3062110262386727">
								<SimplePredicate field="weight" operator="greaterThan" value="2109.0000000000005"/>
							</Node>
						</Node>
						<Node score="0.1277571376413107">
							<SimplePredicate field="cylinders" operator="equal" value="4"/>
							<Node score="0.03994085310170284">
								<SimplePredicate field="weight" operator="greaterThan" value="2080.0000000000005"/>
								<Node score="-0.08601990640163422">
									<SimplePredicate field="acceleration" operator="greaterThan" value="16.950000000000003"/>
								</Node>
								<Node score="-0.05242708966135978">
									<SimplePredicate field="weight" operator="greaterThan" value="2503.0000000000005"/>
								</Node>
							</Node>
						</Node>
						<Node score="-0.14710122105621157">
							<SimplePredicate field="horsepower" operator="greaterThan" value="154.00000000000003"/>
							<Node score="-0.20014034688472748">
								<SimplePredicate field="weight" operator="greaterThan" value="4381.000000000001"/>
							</Node>
						</Node>
						<Node score="-0.17390368587026994">
							<SimplePredicate field="weight" operator="greaterThan" value="3727.5000000000005"/>
							<Node score="-0.10583487967295307">
								<SimplePredicate field="weight" operator="greaterThan" value="4114.500000000001"/>
							</Node>
						</Node>
						<Node score="-0.05268222999293357">
							<SimplePredicate field="weight" operator="greaterThan" value="3007.5000000000005"/>
							<Node score="-0.1116104257851839">
								<SimplePredicate field="acceleration" operator="greaterThan" value="15.750000000000002"/>
							</Node>
						</Node>
					</Node>
				</TreeModel>
			</Segment>
			<Segment id="20">
				<True/>
				<TreeModel functionName="regression" noTrueChildStrategy="returnLastPrediction">
					<MiningSchema>
						<MiningField name="model_year"/>
						<MiningField name="origin"/>
						<MiningField name="acceleration"/>
						<MiningField name="displacement"/>
						<MiningField name="horsepower"/>
						<MiningField name="weight"/>
					</MiningSchema>
					<Node score="0.11029945217072963">
						<True/>
						<Node score="0.26195082515478135">
							<SimpleSetPredicate field="model_year" booleanOperator="isIn">
								<Array type="int">82 77 81 80</Array>
							</SimpleSetPredicate>
							<Node score="0.17201336144602725">
								<SimplePredicate field="weight" operator="greaterThan" value="2189.5000000000005"/>
								<Node score="0.09013224389404059">
									<SimplePredicate field="origin" operator="equal" value="1"/>
									<Node score="0.0146977768146566">
										<SimplePredicate field="horsepower" operator="greaterThan" value="88.50000000000001"/>
									</Node>
								</Node>
							</Node>
						</Node>
						<Node score="-0.02914967227440614">
							<SimplePredicate field="weight" operator="greaterThan" value="2742.5000000000005"/>
							<Node score="-0.06833786183657746">
								<SimplePredicate field="horsepower" operator="greaterThan" value="111.00000000000001"/>
								<Node score="-0.17548771236430516">
									<SimplePredicate field="acceleration" operator="greaterThan" value="13.550000000000002"/>
								</Node>
								<Node score="-0.16720840632915498">
									<SimplePredicate field="displacement" operator="greaterThan" value="329.00000000000006"/>
									<Node score="-0.12384320255368948">
										<SimplePredicate field="weight" operator="greaterThan" value="4294.500000000001"/>
									</Node>
								</Node>
							</Node>
							<Node score="-0.1340022049052641">
								<SimplePredicate field="acceleration" operator="greaterThan" value="17.750000000000004"/>
							</Node>
							<Node score="-0.06975888193008446">
								<SimplePredicate field="displacement" operator="greaterThan" value="231.50000000000003"/>
							</Node>
						</Node>
						<Node score="-0.07309574540704489">
							<SimplePredicate field="acceleration" operator="greaterThan" value="18.900000000000002"/>
						</Node>
						<Node score="0.04191226546785662">
							<SimplePredicate field="weight" operator="greaterThan" value="2121.5000000000005"/>
							<Node score="0.053205991400913755">
								<SimplePredicate field="weight" operator="greaterThan" value="2520.0000000000005"/>
							</Node>
							<Node score="-0.055257450150592">
								<SimplePredicate field="displacement" operator="greaterThan" value="112.50000000000001"/>
							</Node>
						</Node>
					</Node>
				</TreeModel>
			</Segment>
			<Segment id="21">
				<True/>
				<TreeModel functionName="regression" noTrueChildStrategy="returnLastPrediction">
					<MiningSchema>
						<MiningField name="model_year"/>
						<MiningField name="acceleration"/>
						<MiningField name="displacement"/>
						<MiningField name="horsepower"/>
						<MiningField name="weight"/>
					</MiningSchema>
					<Node score="0.2243996434634732">
						<True/>
						<Node score="-0.04311824126967362">
							<SimpleSetPredicate field="model_year" booleanOperator="isIn">
								<Array type="int">73 70 72 71</Array>
							</SimpleSetPredicate>
							<Node score="-0.09851993847638368">
								<SimplePredicate field="weight" operator="greaterThan" value="2305.0000000000005"/>
								<Node score="-0.12957554844182892">
									<SimplePredicate field="horsepower" operator="greaterThan" value="96.50000000000001"/>
									<Node score="-0.2005092533544088">
										<SimplePredicate field="acceleration" operator="greaterThan" value="12.850000000000003"/>
									</Node>
								</Node>
							</Node>
						</Node>
						<Node score="-0.01562066271901131">
							<SimplePredicate field="weight" operator="greaterThan" value="3030.0000000000005"/>
							<Node score="0.019938391198714576">
								<SimplePredicate field="displacement" operator="greaterThan" value="304.50000000000006"/>
							</Node>
							<Node score="-0.1164275960251689">
								<SimplePredicate field="weight" operator="greaterThan" value="3607.0000000000005"/>
							</Node>
							<Node score="-0.0726399646864997">
								<SimplePredicate field="acceleration" operator="greaterThan" value="16.450000000000003"/>
							</Node>
						</Node>
						<Node score="0.2272665125876665">
							<SimplePredicate field="horsepower" operator="greaterThan" value="65.50000000000001"/>
							<Node score="0.0052702357647595585">
								<SimplePredicate field="horsepower" operator="greaterThan" value="96.50000000000001"/>
							</Node>
							<Node score="0.04055718698284843">
								<SimplePredicate field="acceleration" operator="greaterThan" value="15.350000000000003"/>
								<Node score="0.11525866363096882">
									<SimplePredicate field="acceleration" operator="greaterThan" value="16.750000000000004"/>
								</Node>
							</Node>
							<Node score="0.11082542775117832">
								<SimplePredicate field="weight" operator="greaterThan" value="2201.0000000000005"/>
							</Node>
						</Node>
					</Node>
				</TreeModel>
			</Segment>
			<Segment id="22">
				<True/>
				<TreeModel functionName="regression" noTrueChildStrategy="returnLastPrediction">
					<MiningSchema>
						<MiningField name="cylinders"/>
						<MiningField name="model_year"/>
						<MiningField name="origin"/>
						<MiningField name="acceleration"/>
						<MiningField name="horsepower"/>
						<MiningField name="weight"/>
					</MiningSchema>
					<Node score="-0.11196456897471632">
						<True/>
						<Node score="0.30367422282047896">
							<SimpleSetPredicate field="model_year" booleanOperator="isIn">
								<Array type="int">78 82 79 80</Array>
							</SimpleSetPredicate>
							<Node score="0.07702709779143334">
								<SimplePredicate field="weight" operator="greaterThan" value="2398.0000000000005"/>
								<Node score="-0.002019767353639883">
									<SimplePredicate field="weight" operator="greaterThan" value="3030.0000000000005"/>
								</Node>
								<Node score="0.11567330563610251">
									<SimplePredicate field="weight" operator="greaterThan" value="2706.5000000000005"/>
								</Node>
							</Node>
							<Node score="0.15463711373184041">
								<SimplePredicate field="origin" operator="equal" value="3"/>
							</Node>
						</Node>
						<Node score="-0.024124250923975923">
							<SimplePredicate field="cylinders" operator="equal" value="4"/>
							<Node score="0.09292655985515852">
								<SimplePredicate field="origin" operator="equal" value="3"/>
							</Node>
							<Node score="-0.13156228118709154">
								<SimplePredicate field="acceleration" operator="greaterThan" value="17.950000000000003"/>
							</Node>
							<Node score="0.06020812296441624">
								<SimplePredicate field="acceleration" operator="greaterThan" value="15.750000000000002"/>
							</Node>
						</Node>
						<Node score="-0.1329205440150367">
							<SimplePredicate field="horsepower" operator="greaterThan" value="115.50000000000001"/>
							<Node score="-0.1817223797467622">
								<SimplePredicate field="acceleration" operator="greaterThan" value="13.750000000000002"/>
							</Node>
							<Node score="-0.08572534526196811">
								<SimplePredicate field="weight" operator="greaterThan" value="4114.500000000001"/>
							</Node>
						</Node>
						<Node score="-0.04934272665311309">
							<SimplePredicate field="weight" operator="greaterThan" value="3159.0000000000005"/>
						</Node>
					</Node>
				</TreeModel>
			</Segment>
			<Segment id="23">
				<True/>
				<TreeModel functionName="regression" noTrueChildStrategy="returnLastPrediction">
					<MiningSchema>
						<MiningField name="model_year"/>
						<MiningField name="origin"/>
						<MiningField name="acceleration"/>
						<MiningField name="displacement"/>
						<MiningField name="horsepower"/>
						<MiningField name="weight"/>
					</MiningSchema>
					<Node score="0.11140745878219604">
						<True/>
						<Node score="0.25885964269665157">
							<SimpleSetPredicate field="model_year" booleanOperator="isIn">
								<Array type="int">82 77 81 80</Array>
							</SimpleSetPredicate>
							<Node score="0.12562959721045835">
								<SimplePredicate field="origin" operator="equal" value="1"/>
								<Node score="0.011588327097041266">
									<SimplePredicate field="horsepower" operator="greaterThan" value="85.50000000000001"/>
								</Node>
							</Node>
							<Node score="0.12814167873135637">
								<SimplePredicate field="horsepower" operator="greaterThan" value="67.50000000000001"/>
							</Node>
						</Node>
						<Node score="-0.04807125804945827">
							<SimpleSetPredicate field="model_year" booleanOperator="isIn">
								<Array type="int">73 70 72 71</Array>
							</SimpleSetPredicate>
							<Node score="-0.09329463417398864">
								<SimplePredicate field="origin" operator="equal" value="1"/>
								<Node score="-0.17387712507144265">
									<SimplePredicate field="weight" operator="greaterThan" value="4357.000000000001"/>
								</Node>
								<Node score="-0.13890522068197078">
									<SimplePredicate field="acceleration" operator="greaterThan" value="15.450000000000001"/>
								</Node>
								<Node score="-0.11568784616887569">
									<SimplePredicate field="acceleration" operator="greaterThan" value="12.850000000000003"/>
								</Node>
							</Node>
						</Node>
						<Node score="-0.09640806281696196">
							<SimplePredicate field="weight" operator="greaterThan" value="2706.5000000000005"/>
							<Node score="0.016750637516379358">
								<SimplePredicate field="displacement" operator="greaterThan" value="212.50000000000003"/>
								<Node score="-0.08837660605517718">
									<SimplePredicate field="displacement" operator="greaterThan" value="241.00000000000003"/>
									<Node score="0.005366764735916386">
										<SimplePredicate field="displacement" operator="greaterThan" value="304.50000000000006"/>
									</Node>
								</Node>
							</Node>
						</Node>
						<Node score="0.0794520234777814">
							<SimplePredicate field="acceleration" operator="greaterThan" value="14.750000000000002"/>
							<Node score="0.008254125578836962">
								<SimplePredicate field="displacement" operator="greaterThan" value="97.25000000000001"/>
							</Node>
						</Node>
					</Node>
				</TreeModel>
			</Segment>
			<Segment id="24">
				<True/>
				<TreeModel functionName="regression" noTrueChildStrategy="returnLastPrediction">
					<MiningSchema>
						<MiningField name="model_year"/>
						<MiningField name="displacement"/>
						<MiningField name="horsepower"/>
						<MiningField name="weight"/>
					</MiningSchema>
					<Node score="0.069153874181211">
						<True/>
						<Node score="0.06179866671562195">
							<SimpleSetPredicate field="model_year" booleanOperator="isIn">
								<Array type="int">82 79 77 80</Array>
							</SimpleSetPredicate>
							<Node score="0.08727811623145554">
								<SimplePredicate field="weight" operator="greaterThan" value="2578.5000000000005"/>
								<Node score="-0.011934951320290566">
									<SimplePredicate field="weight" operator="greaterThan" value="3257.0000000000005"/>
								</Node>
							</Node>
							<Node score="0.24448596245664012">
								<SimplePredicate field="weight" operator="greaterThan" value="2067.5000000000005"/>
							</Node>
						</Node>
						<Node score="0.023208491844790322">
							<SimplePredicate field="weight" operator="greaterThan" value="2080.0000000000005"/>
							<Node score="-0.10805092149160125">
								<SimpleSetPredicate field="model_year" booleanOperator="isIn">
									<Array type="int">73 70 72 71</Array>
								</SimpleSetPredicate>
								<Node score="-0.1653066218860688">
									<SimplePredicate field="weight" operator="greaterThan" value="3527.5000000000005"/>
									<Node score="-0.08962057307362557">
										<SimplePredicate field="displacement" operator="greaterThan" value="371.50000000000006"/>
									</Node>
								</Node>
								<Node score="-0.02898224356758874">
									<SimplePredicate field="horsepower" operator="greaterThan" value="88.50000000000001"/>
									<Node score="-0.08540638600076948">
										<SimplePredicate field="weight" operator="greaterThan" value="2742.5000000000005"/>
									</Node>
								</Node>
							</Node>
							<Node score="-0.06548701707894604">
								<SimplePredicate field="displacement" operator="greaterThan" value="126.00000000000001"/>
								<Node score="0.0036435154301148877">
									<SimplePredicate field="displacement" operator="greaterThan" value="259.00000000000006"/>
								</Node>
								<Node score="-0.0970619056906019">
									<SimplePredicate field="weight" operator="greaterThan" value="3404.5000000000005"/>
								</Node>
								<Node score="-0.011951494291424752">
									<SimplePredicate field="weight" operator="greaterThan" value="3007.5000000000005"/>
								</Node>
							</Node>
						</Node>
					</Node>
				</TreeModel>
			</Segment>
			<Segment id="25">
				<True/>
				<TreeModel functionName="regression" noTrueChildStrategy="returnLastPrediction">
					<MiningSchema>
						<MiningField name="cylinders"/>
						<MiningField name="model_year"/>
						<MiningField name="origin"/>
						<MiningField name="acceleration"/>
						<MiningField name="displacement"/>
						<MiningField name="horsepower"/>
						<MiningField name="weight"/>
					</MiningSchema>
					<Node score="-0.09777286233979145">
						<True/>
						<Node score="0.24137487912719902">
							<SimpleSetPredicate field="model_year" booleanOperator="isIn">
								<Array type="int">78 82 79 80</Array>
							</SimpleSetPredicate>
							<Node score="0.12243119589984418">
								<SimplePredicate field="horsepower" operator="greaterThan" value="67.50000000000001"/>
								<Node score="0.1159576625004411">
									<SimplePredicate field="acceleration" operator="greaterThan" value="14.750000000000002"/>
									<Node score="-0.034680672522102086">
										<SimplePredicate field="horsepower" operator="greaterThan" value="92.50000000000001"/>
									</Node>
									<Node score="0.02025878673626317">
										<SimplePredicate field="weight" operator="greaterThan" value="2602.5000000000005"/>
									</Node>
								</Node>
							</Node>
						</Node>
						<Node score="0.11715130452997982">
							<SimplePredicate field="cylinders" operator="equal" value="4"/>
							<Node score="-0.03416868665001609">
								<SimplePredicate field="displacement" operator="greaterThan" value="89.50000000000001"/>
								<Node score="-0.15260582024400884">
									<SimplePredicate field="acceleration" operator="greaterThan" value="17.750000000000004"/>
								</Node>
								<Node score="0.0730350796641274">
									<SimplePredicate field="origin" operator="equal" value="3"/>
								</Node>
								<Node score="0.02151998664827689">
									<SimplePredicate field="acceleration" operator="greaterThan" value="14.750000000000002"/>
								</Node>
							</Node>
						</Node>
						<Node score="-0.018401522132934948">
							<SimplePredicate field="acceleration" operator="greaterThan" value="14.450000000000001"/>
							<Node score="-0.10077788168016602">
								<SimplePredicate field="displacement" operator="greaterThan" value="241.00000000000003"/>
							</Node>
						</Node>
						<Node score="-0.14880605667829513">
							<SimplePredicate field="acceleration" operator="greaterThan" value="13.100000000000001"/>
						</Node>
						<Node score="-0.04822801167766253">
							<SimplePredicate field="weight" operator="greaterThan" value="4140.500000000001"/>
						</Node>
					</Node>
				</TreeModel>
			</Segment>
			<Segment id="26">
				<True/>
				<TreeModel functionName="regression" noTrueChildStrategy="returnLastPrediction">
					<MiningSchema>
						<MiningField name="model_year"/>
						<MiningField name="acceleration"/>
						<MiningField name="displacement"/>
						<MiningField name="horsepower"/>
						<MiningField name="weight"/>
					</MiningSchema>
					<Node score="0.03251654999688841">
						<True/>
						<Node score="0.0936120883300523">
							<SimpleSetPredicate field="model_year" booleanOperator="isIn">
								<Array type="int">78 82 77 80</Array>
							</SimpleSetPredicate>
							<Node score="0.023649487615693944">
								<SimplePredicate field="horsepower" operator="greaterThan" value="88.50000000000001"/>
								<Node score="-0.0422599913633388">
									<SimplePredicate field="acceleration" operator="greaterThan" value="15.550000000000002"/>
								</Node>
							</Node>
							<Node score="0.24837271438847328">
								<SimplePredicate field="acceleration" operator="greaterThan" value="16.950000000000003"/>
							</Node>
						</Node>
						<Node score="-0.10124944426119327">
							<SimpleSetPredicate field="model_year" booleanOperator="isIn">
								<Array type="int">73 70 72 74</Array>
							</SimpleSetPredicate>
							<Node score="-0.0608025548471646">
								<SimplePredicate field="displacement" operator="greaterThan" value="212.50000000000003"/>
								<Node score="-0.1608084670551445">
									<SimplePredicate field="acceleration" operator="greaterThan" value="13.950000000000001"/>
								</Node>
								<Node score="-0.10156502603065401">
									<SimplePredicate field="horsepower" operator="greaterThan" value="166.00000000000003"/>
								</Node>
							</Node>
							<Node score="-0.028405076929846326">
								<SimplePredicate field="displacement" operator="greaterThan" value="97.25000000000001"/>
							</Node>
						</Node>
						<Node score="-0.03363752354468618">
							<SimplePredicate field="weight" operator="greaterThan" value="2722.5000000000005"/>
							<Node score="0.028865107539154236">
								<SimplePredicate field="acceleration" operator="greaterThan" value="17.350000000000005"/>
							</Node>
							<Node score="-0.07001044769422152">
								<SimplePredicate field="horsepower" operator="greaterThan" value="115.50000000000001"/>
							</Node>
						</Node>
						<Node score="0.09236015123980386">
							<SimplePredicate field="horsepower" operator="greaterThan" value="83.50000000000001"/>
						</Node>
						<Node score="-0.020757109969854356">
							<SimplePredicate field="acceleration" operator="greaterThan" value="16.950000000000003"/>
						</Node>
					</Node>
				</TreeModel>
			</Segment>
			<Segment id="27">
				<True/>
				<TreeModel functionName="regression" noTrueChildStrategy="returnLastPrediction">
					<MiningSchema>
						<MiningField name="model_year"/>
						<MiningField name="origin"/>
						<MiningField name="acceleration"/>
						<MiningField name="displacement"/>
						<MiningField name="horsepower"/>
						<MiningField name="weight"/>
					</MiningSchema>
					<Node score="0.0028425026684999466">
						<True/>
						<Node score="0.04850875380493346">
							<SimpleSetPredicate field="model_year" booleanOperator="isIn">
								<Array type="int">82 77 81 80</Array>
							</SimpleSetPredicate>
							<Node score="0.08544919410986561">
								<SimplePredicate field="origin" operator="equal" value="1"/>
								<Node score="0.0051932728237339435">
									<SimplePredicate field="horsepower" operator="greaterThan" value="85.50000000000001"/>
								</Node>
							</Node>
							<Node score="0.17651088406176618">
								<SimplePredicate field="weight" operator="greaterThan" value="2080.0000000000005"/>
							</Node>
						</Node>
						<Node score="-0.06032707514507431">
							<SimpleSetPredicate field="model_year" booleanOperator="isIn">
								<Array type="int">73 75 70 72</Array>
							</SimpleSetPredicate>
							<Node score="-0.17594022363424303">
								<SimplePredicate field="acceleration" operator="greaterThan" value="17.950000000000003"/>
							</Node>
							<Node score="0.04055661607068032">
								<SimplePredicate field="acceleration" operator="greaterThan" value="14.450000000000001"/>
								<Node score="-0.07259243486019282">
									<SimplePredicate field="displacement" operator="greaterThan" value="120.50000000000001"/>
								</Node>
							</Node>
							<Node score="-0.10784485023110534">
								<SimplePredicate field="acceleration" operator="greaterThan" value="12.850000000000003"/>
							</Node>
						</Node>
						<Node score="-0.08412199013906978">
							<SimplePredicate field="weight" operator="greaterThan" value="2622.5000000000005"/>
							<Node score="0.019152741972357036">
								<SimplePredicate field="displacement" operator="greaterThan" value="212.50000000000003"/>
								<Node score="-0.015960440606526707">
									<SimplePredicate field="weight" operator="greaterThan" value="3434.5000000000005"/>
									<Node score="-0.06576341202482582">
										<SimplePredicate field="horsepower" operator="greaterThan" value="141.00000000000003"/>
									</Node>
								</Node>
							</Node>
						</Node>
						<Node score="0.10021476795276006">
							<SimplePredicate field="horsepower" operator="greaterThan" value="78.50000000000001"/>
						</Node>
						<Node score="0.055112094449855036">
							<SimplePredicate field="acceleration" operator="greaterThan" value="16.450000000000003"/>
						</Node>
					</Node>
				</TreeModel>
			</Segment>
			<Segment id="28">
				<True/>
				<TreeModel functionName="regression" noTrueChildStrategy="returnLastPrediction">
					<MiningSchema>
						<MiningField name="model_year"/>
						<MiningField name="acceleration"/>
						<MiningField name="displacement"/>
						<MiningField name="horsepower"/>
						<MiningField name="weight"/>
					</MiningSchema>
					<Node score="-0.026452204291567662">
						<True/>
						<Node score="0.1917949829589237">
							<SimpleSetPredicate field="model_year" booleanOperator="isIn">
								<Array type="int">78 82 79 80</Array>
							</SimpleSetPredicate>
							<Node score="0.10270533927250654">
								<SimplePredicate field="horsepower" operator="greaterThan" value="67.50000000000001"/>
								<Node score="0.08349501157645137">
									<SimplePredicate field="acceleration" operator="greaterThan" value="14.750000000000002"/>
									<Node score="-0.02688855802019437">
										<SimplePredicate field="horsepower" operator="greaterThan" value="92.50000000000001"/>
									</Node>
									<Node score="-0.003237568813821544">
										<SimplePredicate field="acceleration" operator="greaterThan" value="17.050000000000004"/>
									</Node>
								</Node>
							</Node>
						</Node>
						<Node score="-0.02372413586292948">
							<SimpleSetPredicate field="model_year" booleanOperator="isIn">
								<Array type="int">73 70 72 71</Array>
							</SimpleSetPredicate>
							<Node score="-0.09697833627462388">
								<SimplePredicate field="weight" operator="greaterThan" value="2305.0000000000005"/>
								<Node score="-0.11904091880373334">
									<SimplePredicate field="weight" operator="greaterThan" value="4357.000000000001"/>
								</Node>
								<Node score="-0.043501548028628656">
									<SimplePredicate field="displacement" operator="greaterThan" value="177.00000000000003"/>
									<Node score="-0.07677386942608604">
										<SimplePredicate field="weight" operator="greaterThan" value="3527.5000000000005"/>
									</Node>
								</Node>
							</Node>
						</Node>
						<Node score="-0.019520305269039598">
							<SimplePredicate field="displacement" operator="greaterThan" value="148.50000000000003"/>
							<Node score="0.033142579179257156">
								<SimplePredicate field="displacement" operator="greaterThan" value="304.50000000000006"/>
							</Node>
							<Node score="-0.09985662212838298">
								<SimplePredicate field="displacement" operator="greaterThan" value="241.00000000000003"/>
							</Node>
						</Node>
						<Node score="0.0978110246732831">
							<SimplePredicate field="acceleration" operator="greaterThan" value="15.750000000000002"/>
							<Node score="0.03331363027294477">
								<SimplePredicate field="weight" operator="greaterThan" value="2050.5000000000005"/>
							</Node>
						</Node>
					</Node>
				</TreeModel>
			</Segment>
			<Segment id="29">
				<True/>
				<TreeModel functionName="regression" noTrueChildStrategy="returnLastPrediction">
					<MiningSchema>
						<MiningField name="model_year"/>
						<MiningField name="origin"/>
						<MiningField name="acceleration"/>
						<MiningField name="displacement"/>
						<MiningField name="horsepower"/>
						<MiningField name="weight"/>
					</MiningSchema>
					<Node score="0.046454690396785736">
						<True/>
						<Node score="0.011663178261369467">
							<SimpleSetPredicate field="model_year" booleanOperator="isIn">
								<Array type="int">82 79 77 80</Array>
							</SimpleSetPredicate>
							<Node score="-0.0024015469283893195">
								<SimplePredicate field="weight" operator="greaterThan" value="3159.0000000000005"/>
							</Node>
							<Node score="0.19000743318487098">
								<SimplePredicate field="weight" operator="greaterThan" value="2067.5000000000005"/>
								<Node score="0.07042760355888229">
									<SimplePredicate field="origin" operator="equal" value="1"/>
								</Node>
							</Node>
						</Node>
						<Node score="0.042948285319975445">
							<SimplePredicate field="weight" operator="greaterThan" value="2080.0000000000005"/>
							<Node score="-0.10823035023866162">
								<SimpleSetPredicate field="model_year" booleanOperator="isIn">
									<Array type="int">73 78 72 71</Array>
								</SimpleSetPredicate>
								<Node score="-0.02018095652327045">
									<SimplePredicate field="origin" operator="equal" value="1"/>
									<Node score="-0.08761907113449914">
										<SimplePredicate field="displacement" operator="greaterThan" value="329.00000000000006"/>
									</Node>
									<Node score="-0.07668535655195063">
										<SimplePredicate field="acceleration" operator="greaterThan" value="15.850000000000003"/>
									</Node>
								</Node>
							</Node>
							<Node score="-0.03867774564644386">
								<SimplePredicate field="displacement" operator="greaterThan" value="126.00000000000001"/>
								<Node score="-0.015351029224111698">
									<SimplePredicate field="horsepower" operator="greaterThan" value="115.50000000000001"/>
									<Node score="-0.0996182556077838">
										<SimplePredicate field="acceleration" operator="greaterThan" value="12.850000000000003"/>
									</Node>
								</Node>
								<Node score="0.02368954268417188">
									<SimplePredicate field="horsepower" operator="greaterThan" value="97.50000000000001"/>
								</Node>
							</Node>
						</Node>
					</Node>
				</TreeModel>
			</Segment>
			<Segment id="30">
				<True/>
				<TreeModel functionName="regression" noTrueChildStrategy="returnLastPrediction">
					<MiningSchema>
						<MiningField name="model_year"/>
						<MiningField name="acceleration"/>
						<MiningField name="displacement"/>
						<MiningField name="horsepower"/>
						<MiningField name="weight"/>
					</MiningSchema>
					<Node score="0.050883388007059695">
						<True/>
						<Node score="0.1649388203736056">
							<SimpleSetPredicate field="model_year" booleanOperator="isIn">
								<Array type="int">78 82 79 80</Array>
							</SimpleSetPredicate>
							<Node score="0.08771085729822517">
								<SimplePredicate field="horsepower" operator="greaterThan" value="67.50000000000001"/>
								<Node score="0.03519124781543558">
									<SimplePredicate field="acceleration" operator="greaterThan" value="14.750000000000002"/>
									<Node score="0.06677041456265294">
										<SimplePredicate field="weight" operator="greaterThan" value="3007.5000000000005"/>
									</Node>
									<Node score="-0.054847743390532944">
										<SimplePredicate field="weight" operator="greaterThan" value="2602.5000000000005"/>
									</Node>
								</Node>
							</Node>
						</Node>
						<Node score="-0.08595599479973316">
							<SimpleSetPredicate field="model_year" booleanOperator="isIn">
								<Array type="int">73 70 72 74</Array>
							</SimpleSetPredicate>
							<Node score="-0.09550209484462228">
								<SimplePredicate field="horsepower" operator="greaterThan" value="159.00000000000003"/>
							</Node>
							<Node score="0.004411766678094864">
								<SimplePredicate field="displacement" operator="greaterThan" value="97.25000000000001"/>
								<Node score="-0.036868486832827334">
									<SimplePredicate field="displacement" operator="greaterThan" value="121.50000000000001"/>
									<Node score="-0.08550662689265752">
										<SimplePredicate field="acceleration" operator="greaterThan" value="15.850000000000003"/>
									</Node>
								</Node>
							</Node>
						</Node>
						<Node score="-0.040497647267248894">
							<SimplePredicate field="weight" operator="greaterThan" value="2156.5000000000005"/>
							<Node score="-0.09286196821182967">
								<SimplePredicate field="horsepower" operator="greaterThan" value="106.00000000000001"/>
								<Node score="0.02491975971031934">
									<SimplePredicate field="weight" operator="greaterThan" value="4114.500000000001"/>
								</Node>
							</Node>
							<Node score="0.042368260739535535">
								<SimplePredicate field="horsepower" operator="greaterThan" value="88.50000000000001"/>
							</Node>
						</Node>
					</Node>
				</TreeModel>
			</Segment>
			<Segment id="31">
				<True/>
				<TreeModel functionName="regression" noTrueChildStrategy="returnLastPrediction">
					<MiningSchema>
						<MiningField name="model_year"/>
						<MiningField name="origin"/>
						<MiningField name="acceleration"/>
						<MiningField name="displacement"/>
						<MiningField name="horsepower"/>
						<MiningField name="weight"/>
					</MiningSchema>
					<Node score="-8.224301040172578E-5">
						<True/>
						<Node score="0.05501599331965318">
							<SimpleSetPredicate field="model_year" booleanOperator="isIn">
								<Array type="int">78 82 77 80</Array>
							</SimpleSetPredicate>
							<Node score="-0.04649012967944145">
								<SimplePredicate field="horsepower" operator="greaterThan" value="88.50000000000001"/>
								<Node score="0.0072406785100299345">
									<SimplePredicate field="displacement" operator="greaterThan" value="153.00000000000003"/>
								</Node>
							</Node>
							<Node score="0.19002584118781418">
								<SimplePredicate field="acceleration" operator="greaterThan" value="16.950000000000003"/>
							</Node>
						</Node>
						<Node score="-0.07581629998981954">
							<SimpleSetPredicate field="model_year" booleanOperator="isIn">
								<Array type="int">73 75 70 72</Array>
							</SimpleSetPredicate>
							<Node score="-0.1420779824256897">
								<SimplePredicate field="acceleration" operator="greaterThan" value="17.950000000000003"/>
							</Node>
							<Node score="0.005541597958654165">
								<SimplePredicate field="acceleration" operator="greaterThan" value="15.850000000000003"/>
							</Node>
							<Node score="-0.07591428461018951">
								<SimplePredicate field="horsepower" operator="greaterThan" value="172.50000000000003"/>
							</Node>
							<Node score="-0.005029536943639751">
								<SimplePredicate field="horsepower" operator="greaterThan" value="106.00000000000001"/>
								<Node score="-0.03920401783194393">
									<SimplePredicate field="weight" operator="greaterThan" value="3958.5000000000005"/>
								</Node>
							</Node>
						</Node>
						<Node score="-0.05320032138239455">
							<SimplePredicate field="horsepower" operator="greaterThan" value="127.00000000000001"/>
						</Node>
						<Node score="0.07465003313496708">
							<SimplePredicate field="horsepower" operator="greaterThan" value="88.50000000000001"/>
							<Node score="0.02457860562205315">
								<SimplePredicate field="acceleration" operator="greaterThan" value="15.450000000000001"/>
							</Node>
						</Node>
						<Node score="0.03481653953591983">
							<SimplePredicate field="origin" operator="equal" value="3"/>
						</Node>
						<Node score="-0.07746507894425166">
							<SimplePredicate field="acceleration" operator="greaterThan" value="16.550000000000004"/>
						</Node>
					</Node>
				</TreeModel>
			</Segment>
			<Segment id="32">
				<True/>
				<TreeModel functionName="regression" noTrueChildStrategy="returnLastPrediction">
					<MiningSchema>
						<MiningField name="model_year"/>
						<MiningField name="origin"/>
						<MiningField name="acceleration"/>
						<MiningField name="horsepower"/>
						<MiningField name="weight"/>
					</MiningSchema>
					<Node score="0.006670551515511565">
						<True/>
						<Node score="0.15555160731077194">
							<SimpleSetPredicate field="model_year" booleanOperator="isIn">
								<Array type="int">78 82 81 80</Array>
							</SimpleSetPredicate>
							<Node score="0.124852729216218">
								<SimplePredicate field="horsepower" operator="greaterThan" value="65.50000000000001"/>
								<Node score="-0.07330364009737969">
									<SimplePredicate field="acceleration" operator="greaterThan" value="15.350000000000003"/>
									<Node score="0.04877882775747114">
										<SimplePredicate field="acceleration" operator="greaterThan" value="16.650000000000002"/>
									</Node>
								</Node>
								<Node score="0.034666082821786404">
									<SimplePredicate field="weight" operator="greaterThan" value="2503.0000000000005"/>
								</Node>
							</Node>
						</Node>
						<Node score="-0.04433423757553101">
							<SimpleSetPredicate field="model_year" booleanOperator="isIn">
								<Array type="int">73 72 71 74</Array>
							</SimpleSetPredicate>
							<Node score="-0.0978332733269781">
								<SimplePredicate field="horsepower" operator="greaterThan" value="96.50000000000001"/>
								<Node score="-0.048838880430493094">
									<SimplePredicate field="weight" operator="greaterThan" value="4068.5000000000005"/>
								</Node>
							</Node>
							<Node score="-0.009010592283624592">
								<SimplePredicate field="acceleration" operator="greaterThan" value="15.850000000000003"/>
							</Node>
						</Node>
						<Node score="-0.07619159069284798">
							<SimplePredicate field="acceleration" operator="greaterThan" value="17.750000000000004"/>
						</Node>
						<Node score="-0.07265497892690094">
							<SimplePredicate field="horsepower" operator="greaterThan" value="127.00000000000001"/>
							<Node score="0.015357442865414279">
								<SimplePredicate field="weight" operator="greaterThan" value="4140.500000000001"/>
							</Node>
						</Node>
						<Node score="0.08016983356488788">
							<SimplePredicate field="origin" operator="equal" value="1"/>
							<Node score="0.048127380013465886">
								<SimplePredicate field="acceleration" operator="greaterThan" value="15.850000000000003"/>
							</Node>
						</Node>
					</Node>
				</TreeModel>
			</Segment>
			<Segment id="33">
				<True/>
				<TreeModel functionName="regression" noTrueChildStrategy="returnLastPrediction">
					<MiningSchema>
						<MiningField name="model_year"/>
						<MiningField name="origin"/>
						<MiningField name="acceleration"/>
						<MiningField name="displacement"/>
						<MiningField name="horsepower"/>
						<MiningField name="weight"/>
					</MiningSchema>
					<Node score="0.03401626329869032">
						<True/>
						<Node score="0.17080142199993134">
							<SimpleSetPredicate field="model_year" booleanOperator="isIn">
								<Array type="int">82 79 77 80</Array>
							</SimpleSetPredicate>
							<Node score="-0.0024176968543818504">
								<SimplePredicate field="horsepower" operator="greaterThan" value="96.50000000000001"/>
							</Node>
							<Node score="0.13189943704754115">
								<SimplePredicate field="acceleration" operator="greaterThan" value="15.050000000000002"/>
								<Node score="-0.051399328336119654">
									<SimplePredicate field="origin" operator="equal" value="3"/>
								</Node>
								<Node score="0.029303883612155912">
									<SimplePredicate field="displacement" operator="greaterThan" value="134.50000000000003"/>
								</Node>
							</Node>
						</Node>
						<Node score="0.04132728183908122">
							<SimplePredicate field="weight" operator="greaterThan" value="2080.0000000000005"/>
							<Node score="-0.08984825827421682">
								<SimpleSetPredicate field="model_year" booleanOperator="isIn">
									<Array type="int">73 78 72 71</Array>
								</SimpleSetPredicate>
								<Node score="-0.014200487774279383">
									<SimplePredicate field="origin" operator="equal" value="1"/>
									<Node score="-0.06228192262600975">
										<SimplePredicate field="displacement" operator="greaterThan" value="329.00000000000006"/>
									</Node>
									<Node score="-0.0644032317806374">
										<SimplePredicate field="acceleration" operator="greaterThan" value="15.850000000000003"/>
									</Node>
								</Node>
							</Node>
							<Node score="-0.007485016918508336">
								<SimplePredicate field="displacement" operator="greaterThan" value="126.00000000000001"/>
								<Node score="0.008635493965241416">
									<SimplePredicate field="displacement" operator="greaterThan" value="304.50000000000006"/>
								</Node>
								<Node score="-0.08524550995366141">
									<SimplePredicate field="displacement" operator="greaterThan" value="241.00000000000003"/>
								</Node>
							</Node>
						</Node>
					</Node>
				</TreeModel>
			</Segment>
			<Segment id="34">
				<True/>
				<TreeModel functionName="regression" noTrueChildStrategy="returnLastPrediction">
					<MiningSchema>
						<MiningField name="model_year"/>
						<MiningField name="origin"/>
						<MiningField name="acceleration"/>
						<MiningField name="displacement"/>
						<MiningField name="horsepower"/>
					</MiningSchema>
					<Node score="-0.007368149273097516">
						<True/>
						<Node score="0.0384045655260215">
							<SimpleSetPredicate field="model_year" booleanOperator="isIn">
								<Array type="int">78 82 77 80</Array>
							</SimpleSetPredicate>
							<Node score="-0.04490484057925642">
								<SimplePredicate field="horsepower" operator="greaterThan" value="88.50000000000001"/>
								<Node score="0.006930299827030727">
									<SimplePredicate field="displacement" operator="greaterThan" value="153.00000000000003"/>
								</Node>
							</Node>
							<Node score="0.16037648688231051">
								<SimplePredicate field="acceleration" operator="greaterThan" value="16.950000000000003"/>
							</Node>
						</Node>
						<Node score="-0.06500345103442669">
							<SimpleSetPredicate field="model_year" booleanOperator="isIn">
								<Array type="int">73 75 70 72</Array>
							</SimpleSetPredicate>
							<Node score="-0.11823442732042166">
								<SimplePredicate field="acceleration" operator="greaterThan" value="17.950000000000003"/>
							</Node>
							<Node score="0.007514911059600612">
								<SimplePredicate field="acceleration" operator="greaterThan" value="15.850000000000003"/>
							</Node>
							<Node score="-0.0014951025139342882">
								<SimplePredicate field="horsepower" operator="greaterThan" value="106.00000000000001"/>
								<Node score="-0.05443978048861027">
									<SimplePredicate field="horsepower" operator="greaterThan" value="154.00000000000003"/>
								</Node>
							</Node>
						</Node>
						<Node score="-0.03636734124527059">
							<SimplePredicate field="horsepower" operator="greaterThan" value="115.50000000000001"/>
						</Node>
						<Node score="0.053758267790843285">
							<SimplePredicate field="horsepower" operator="greaterThan" value="88.50000000000001"/>
						</Node>
						<Node score="0.025996434972399757">
							<SimplePredicate field="origin" operator="equal" value="3"/>
						</Node>
						<Node score="-0.07003572020857107">
							<SimplePredicate field="acceleration" operator="greaterThan" value="16.550000000000004"/>
						</Node>
					</Node>
				</TreeModel>
			</Segment>
			<Segment id="35">
				<True/>
				<TreeModel functionName="regression" noTrueChildStrategy="returnLastPrediction">
					<MiningSchema>
						<MiningField name="model_year"/>
						<MiningField name="acceleration"/>
						<MiningField name="displacement"/>
						<MiningField name="horsepower"/>
						<MiningField name="weight"/>
					</MiningSchema>
					<Node score="0.05891387178562582">
						<True/>
						<Node score="0.09448972887226514">
							<SimpleSetPredicate field="model_year" booleanOperator="isIn">
								<Array type="int">78 82 79 80</Array>
							</SimpleSetPredicate>
							<Node score="-0.09094529975028265">
								<SimplePredicate field="acceleration" operator="greaterThan" value="14.750000000000002"/>
								<Node score="0.1303230134397745">
									<SimplePredicate field="acceleration" operator="greaterThan" value="16.950000000000003"/>
									<Node score="0.03390630476854064">
										<SimplePredicate field="horsepower" operator="greaterThan" value="78.50000000000001"/>
									</Node>
								</Node>
								<Node score="0.006753050908446312">
									<SimplePredicate field="horsepower" operator="greaterThan" value="85.50000000000001"/>
								</Node>
							</Node>
						</Node>
						<Node score="-0.09480020176046171">
							<SimplePredicate field="weight" operator="greaterThan" value="1952.5000000000002"/>
							<Node score="0.010385459767920631">
								<SimplePredicate field="horsepower" operator="greaterThan" value="73.00000000000001"/>
								<Node score="0.06113625687937583">
									<SimpleSetPredicate field="model_year" booleanOperator="isIn">
										<Array type="int">76 75 70 81 74</Array>
									</SimpleSetPredicate>
									<Node score="-0.022700029327755885">
										<SimplePredicate field="displacement" operator="greaterThan" value="126.00000000000001"/>
										<Node score="0.0033149591786786913">
											<SimplePredicate field="horsepower" operator="greaterThan" value="115.50000000000001"/>
											<Node score="-0.07281274998094887">
												<SimplePredicate field="acceleration" operator="greaterThan" value="12.850000000000003"/>
											</Node>
										</Node>
										<Node score="0.03133084218089397">
											<SimplePredicate field="weight" operator="greaterThan" value="3077.5000000000005"/>
										</Node>
									</Node>
								</Node>
								<Node score="-0.08115557770837438">
									<SimplePredicate field="weight" operator="greaterThan" value="2305.0000000000005"/>
									<Node score="-0.04675701521337033">
										<SimplePredicate field="horsepower" operator="greaterThan" value="141.00000000000003"/>
										<Node score="-0.02853976477953521">
											<SimplePredicate field="displacement" operator="greaterThan" value="350.50000000000006"/>
										</Node>
									</Node>
									<Node score="-0.06456514764577151">
										<SimplePredicate field="weight" operator="greaterThan" value="2959.5000000000005"/>
									</Node>
								</Node>
							</Node>
						</Node>
					</Node>
				</TreeModel>
			</Segment>
			<Segment id="36">
				<True/>
				<TreeModel functionName="regression" noTrueChildStrategy="returnLastPrediction">
					<MiningSchema>
						<MiningField name="model_year"/>
						<MiningField name="origin"/>
						<MiningField name="acceleration"/>
						<MiningField name="displacement"/>
						<MiningField name="horsepower"/>
						<MiningField name="weight"/>
					</MiningSchema>
					<Node score="0.013433707446644181">
						<True/>
						<Node score="0.13553261782812037">
							<SimpleSetPredicate field="model_year" booleanOperator="isIn">
								<Array type="int">78 82 77 80</Array>
							</SimpleSetPredicate>
							<Node score="0.011492794007062913">
								<SimplePredicate field="horsepower" operator="greaterThan" value="67.50000000000001"/>
								<Node score="-0.030708256169621435">
									<SimplePredicate field="horsepower" operator="greaterThan" value="88.50000000000001"/>
									<Node score="0.019792678197845817">
										<SimplePredicate field="weight" operator="greaterThan" value="3417.5000000000005"/>
									</Node>
								</Node>
								<Node score="0.09225212404770511">
									<SimplePredicate field="horsepower" operator="greaterThan" value="78.50000000000001"/>
								</Node>
							</Node>
						</Node>
						<Node score="-0.0657481849938631">
							<SimpleSetPredicate field="model_year" booleanOperator="isIn">
								<Array type="int">73 70 72 74</Array>
							</SimpleSetPredicate>
							<Node score="-0.013538320434533738">
								<SimplePredicate field="displacement" operator="greaterThan" value="212.50000000000003"/>
								<Node score="-0.09880757409593334">
									<SimplePredicate field="acceleration" operator="greaterThan" value="13.950000000000001"/>
								</Node>
								<Node score="-0.036703450481096904">
									<SimplePredicate field="horsepower" operator="greaterThan" value="166.00000000000003"/>
								</Node>
							</Node>
							<Node score="0.004798140074755695">
								<SimplePredicate field="displacement" operator="greaterThan" value="97.25000000000001"/>
							</Node>
						</Node>
						<Node score="0.0804243719035929">
							<SimplePredicate field="horsepower" operator="greaterThan" value="88.50000000000001"/>
							<Node score="-0.02750205683211486">
								<SimplePredicate field="horsepower" operator="greaterThan" value="115.50000000000001"/>
							</Node>
							<Node score="0.026810131207108498">
								<SimplePredicate field="acceleration" operator="greaterThan" value="15.450000000000001"/>
							</Node>
						</Node>
						<Node score="-0.07307770567635695">
							<SimplePredicate field="origin" operator="equal" value="1"/>
						</Node>
					</Node>
				</TreeModel>
			</Segment>
			<Segment id="37">
				<True/>
				<TreeModel functionName="regression" noTrueChildStrategy="returnLastPrediction">
					<MiningSchema>
						<MiningField name="cylinders"/>
						<MiningField name="model_year"/>
						<MiningField name="origin"/>
						<MiningField name="acceleration"/>
						<MiningField name="displacement"/>
						<MiningField name="horsepower"/>
						<MiningField name="weight"/>
					</MiningSchema>
					<Node score="-0.05460432077708998">
						<True/>
						<Node score="-0.044854633634289105">
							<SimpleSetPredicate field="model_year" booleanOperator="isIn">
								<Array type="int">82 77 81 80</Array>
							</SimpleSetPredicate>
							<Node score="0.09182224173260772">
								<SimplePredicate field="acceleration" operator="greaterThan" value="18.250000000000004"/>
							</Node>
							<Node score="0.10670429390101206">
